digraph Tree {
node [shape=box] ;
0 [label="X[1] <= 70.0\nentropy = 0.954\nsamples = 8\nvalue = [3, 5]"] ;
1 [label="X[0] <= 1.65\nentropy = 0.971\nsamples = 5\nvalue = [3, 2]"] ;
0 -> 1 [labeldistance=2.5, labelangle=45, headlabel="True"] ;
2 [label="X[1] <= 55.0\nentropy = 0.918\nsamples = 3\nvalue = [1, 2]"] ;
1 -> 2 ;
3 [label="entropy = 0.0\nsamples = 1\nvalue = [1, 0]"] ;
2 -> 3 ;
4 [label="entropy = 0.0\nsamples = 2\nvalue = [0, 2]"] ;
2 -> 4 ;
5 [label="entropy = 0.0\nsamples = 2\nvalue = [2, 0]"] ;
1 -> 5 ;
6 [label="entropy = 0.0\nsamples = 3\nvalue = [0, 3]"] ;
0 -> 6 [labeldistance=2.5, labelangle=-45, headlabel="False"] ;
}